digraph Tree {
node [shape=box] ;
0 [label="X[15] <= 0.5\ngini = 0.419\nsamples = 211\nvalue = [148, 63]"] ;
1 [label="X[13] <= 0.5\ngini = 0.231\nsamples = 45\nvalue = [6, 39]"] ;
0 -> 1 [labeldistance=2.5, labelangle=45, headlabel="True"] ;
2 [label="X[6] <= 262.0\ngini = 0.057\nsamples = 34\nvalue = [1, 33]"] ;
1 -> 2 ;
3 [label="X[7] <= 0.5\ngini = 0.375\nsamples = 4\nvalue = [1, 3]"] ;
2 -> 3 ;
4 [label="gini = 0.0\nsamples = 1\nvalue = [1, 0]"] ;
3 -> 4 ;
5 [label="gini = 0.0\nsamples = 3\nvalue = [0, 3]"] ;
3 -> 5 ;
6 [label="gini = 0.0\nsamples = 30\nvalue = [0, 30]"] ;
2 -> 6 ;
7 [label="X[11] <= 13.2\ngini = 0.496\nsamples = 11\nvalue = [5, 6]"] ;
1 -> 7 ;
8 [label="X[2] <= 1.525\ngini = 0.278\nsamples = 6\nvalue = [5, 1]"] ;
7 -> 8 ;
9 [label="gini = 0.0\nsamples = 1\nvalue = [0, 1]"] ;
8 -> 9 ;
10 [label="gini = 0.0\nsamples = 5\nvalue = [5, 0]"] ;
8 -> 10 ;
11 [label="gini = 0.0\nsamples = 5\nvalue = [0, 5]"] ;
7 -> 11 ;
12 [label="X[13] <= 0.5\ngini = 0.247\nsamples = 166\nvalue = [142, 24]"] ;
0 -> 12 [labeldistance=2.5, labelangle=-45, headlabel="False"] ;
13 [label="X[16] <= 4.5\ngini = 0.5\nsamples = 18\nvalue = [9, 9]"] ;
12 -> 13 ;
14 [label="X[1] <= 89.25\ngini = 0.375\nsamples = 12\nvalue = [3, 9]"] ;
13 -> 14 ;
15 [label="gini = 0.0\nsamples = 6\nvalue = [0, 6]"] ;
14 -> 15 ;
16 [label="X[12] <= 5.5\ngini = 0.5\nsamples = 6\nvalue = [3, 3]"] ;
14 -> 16 ;
17 [label="gini = 0.0\nsamples = 3\nvalue = [3, 0]"] ;
16 -> 17 ;
18 [label="gini = 0.0\nsamples = 3\nvalue = [0, 3]"] ;
16 -> 18 ;
19 [label="gini = 0.0\nsamples = 6\nvalue = [6, 0]"] ;
13 -> 19 ;
20 [label="X[2] <= 1.505\ngini = 0.182\nsamples = 148\nvalue = [133, 15]"] ;
12 -> 20 ;
21 [label="X[7] <= 1.5\ngini = 0.5\nsamples = 8\nvalue = [4, 4]"] ;
20 -> 21 ;
22 [label="X[6] <= 256.0\ngini = 0.32\nsamples = 5\nvalue = [4, 1]"] ;
21 -> 22 ;
23 [label="gini = 0.0\nsamples = 1\nvalue = [0, 1]"] ;
22 -> 23 ;
24 [label="gini = 0.0\nsamples = 4\nvalue = [4, 0]"] ;
22 -> 24 ;
25 [label="gini = 0.0\nsamples = 3\nvalue = [0, 3]"] ;
21 -> 25 ;
26 [label="X[3] <= 34.897\ngini = 0.145\nsamples = 140\nvalue = [129, 11]"] ;
20 -> 26 ;
27 [label="X[16] <= 0.5\ngini = 0.062\nsamples = 94\nvalue = [91, 3]"] ;
26 -> 27 ;
28 [label="X[1] <= 71.5\ngini = 0.48\nsamples = 5\nvalue = [3, 2]"] ;
27 -> 28 ;
29 [label="gini = 0.0\nsamples = 2\nvalue = [0, 2]"] ;
28 -> 29 ;
30 [label="gini = 0.0\nsamples = 3\nvalue = [3, 0]"] ;
28 -> 30 ;
31 [label="X[5] <= 0.5\ngini = 0.022\nsamples = 89\nvalue = [88, 1]"] ;
27 -> 31 ;
32 [label="gini = 0.0\nsamples = 85\nvalue = [85, 0]"] ;
31 -> 32 ;
33 [label="X[6] <= 284.5\ngini = 0.375\nsamples = 4\nvalue = [3, 1]"] ;
31 -> 33 ;
34 [label="gini = 0.0\nsamples = 3\nvalue = [3, 0]"] ;
33 -> 34 ;
35 [label="gini = 0.0\nsamples = 1\nvalue = [0, 1]"] ;
33 -> 35 ;
36 [label="X[0] <= 19.5\ngini = 0.287\nsamples = 46\nvalue = [38, 8]"] ;
26 -> 36 ;
37 [label="X[7] <= 0.5\ngini = 0.5\nsamples = 8\nvalue = [4, 4]"] ;
36 -> 37 ;
38 [label="gini = 0.0\nsamples = 3\nvalue = [0, 3]"] ;
37 -> 38 ;
39 [label="X[10] <= 2.5\ngini = 0.32\nsamples = 5\nvalue = [4, 1]"] ;
37 -> 39 ;
40 [label="gini = 0.0\nsamples = 1\nvalue = [0, 1]"] ;
39 -> 40 ;
41 [label="gini = 0.0\nsamples = 4\nvalue = [4, 0]"] ;
39 -> 41 ;
42 [label="X[3] <= 35.303\ngini = 0.188\nsamples = 38\nvalue = [34, 4]"] ;
36 -> 42 ;
43 [label="X[16] <= 2.0\ngini = 0.444\nsamples = 3\nvalue = [1, 2]"] ;
42 -> 43 ;
44 [label="gini = 0.0\nsamples = 1\nvalue = [1, 0]"] ;
43 -> 44 ;
45 [label="gini = 0.0\nsamples = 2\nvalue = [0, 2]"] ;
43 -> 45 ;
46 [label="X[8] <= 0.5\ngini = 0.108\nsamples = 35\nvalue = [33, 2]"] ;
42 -> 46 ;
47 [label="X[9] <= 18.0\ngini = 0.48\nsamples = 5\nvalue = [3, 2]"] ;
46 -> 47 ;
48 [label="gini = 0.0\nsamples = 3\nvalue = [3, 0]"] ;
47 -> 48 ;
49 [label="gini = 0.0\nsamples = 2\nvalue = [0, 2]"] ;
47 -> 49 ;
50 [label="gini = 0.0\nsamples = 30\nvalue = [30, 0]"] ;
46 -> 50 ;
}
